digraph Tree {
node [shape=box] ;
0 [label="sentLen <= 0.2348\nentropy = 1.2514\nsamples = 1716\nvalue = [366, 1161, 174, 15]"] ;
1 [label="stdSub <= 1.7618\nentropy = 1.2349\nsamples = 1185\nvalue = [274, 801, 98, 12]"] ;
0 -> 1 [labeldistance=2.5, labelangle=45, headlabel="True"] ;
2 [label="subRange <= 0.7386\nentropy = 1.2338\nsamples = 1136\nvalue = [260, 768, 98, 10]"] ;
1 -> 2 ;
3 [label="entropy = 1.2252\nsamples = 852\nvalue = [214, 567, 65, 6]"] ;
2 -> 3 ;
4 [label="entropy = 1.2258\nsamples = 284\nvalue = [46, 201, 33, 4]"] ;
2 -> 4 ;
5 [label="overallPol <= 1.9708\nentropy = 1.0888\nsamples = 49\nvalue = [14, 33, 0, 2]"] ;
1 -> 5 ;
6 [label="entropy = 1.0971\nsamples = 39\nvalue = [14, 24, 0, 1]"] ;
5 -> 6 ;
7 [label="entropy = 0.469\nsamples = 10\nvalue = [0, 9, 0, 1]"] ;
5 -> 7 ;
8 [label="overallPol <= -0.5437\nentropy = 1.2619\nsamples = 531\nvalue = [92, 360, 76, 3]"] ;
0 -> 8 [labeldistance=2.5, labelangle=-45, headlabel="False"] ;
9 [label="subRange <= 0.5052\nentropy = 1.3405\nsamples = 104\nvalue = [32, 60, 12, 0]"] ;
8 -> 9 ;
10 [label="entropy = 1.4053\nsamples = 79\nvalue = [29, 40, 10, 0]"] ;
9 -> 10 ;
11 [label="entropy = 0.9161\nsamples = 25\nvalue = [3, 20, 2, 0]"] ;
9 -> 11 ;
12 [label="overallSub <= 0.2608\nentropy = 1.2163\nsamples = 427\nvalue = [60, 300, 64, 3]"] ;
8 -> 12 ;
13 [label="entropy = 1.0904\nsamples = 264\nvalue = [24, 196, 43, 1]"] ;
12 -> 13 ;
14 [label="entropy = 1.3536\nsamples = 163\nvalue = [36, 104, 21, 2]"] ;
12 -> 14 ;
}